int var0 = 0 ;
float pi1 = 3.14 ;
string msg2 = "test message 2" ;
bool flag3 = 3 == 4 ;
int calc4 = ( 4 + 10 ) * 2 ;
int var5 = 5 ;
float pi6 = 3.14 ;
string msg7 = "test message 7" ;
bool flag8 = 8 == 9 ;
int calc9 = ( 9 + 10 ) * 2 ;
int var10 = 10 ;
float pi11 = 3.14 ;
string msg12 = "test message 12" ;
bool flag13 = 13 == 14 ;
int calc14 = ( 14 + 10 ) * 2 ;
int var15 = 15 ;
float pi16 = 3.14 ;
string msg17 = "test message 17" ;
bool flag18 = 18 == 19 ;
int calc19 = ( 19 + 10 ) * 2 ;
int var20 = 20 ;
float pi21 = 3.14 ;
string msg22 = "test message 22" ;
bool flag23 = 23 == 24 ;
int calc24 = ( 24 + 10 ) * 2 ;
int var25 = 25 ;
float pi26 = 3.14 ;
string msg27 = "test message 27" ;
bool flag28 = 28 == 29 ;
int calc29 = ( 29 + 10 ) * 2 ;
int var30 = 30 ;
float pi31 = 3.14 ;
string msg32 = "test message 32" ;
bool flag33 = 33 == 34 ;
int calc34 = ( 34 + 10 ) * 2 ;
int var35 = 35 ;
float pi36 = 3.14 ;
string msg37 = "test message 37" ;
bool flag38 = 38 == 39 ;
int calc39 = ( 39 + 10 ) * 2 ;
int var40 = 40 ;
float pi41 = 3.14 ;
string msg42 = "test message 42" ;
bool flag43 = 43 == 44 ;
int calc44 = ( 44 + 10 ) * 2 ;
int var45 = 45 ;
float pi46 = 3.14 ;
string msg47 = "test message 47" ;
bool flag48 = 48 == 49 ;
int calc49 = ( 49 + 10 ) * 2 ;
int var50 = 50 ;
float pi51 = 3.14 ;
string msg52 = "test message 52" ;
bool flag53 = 53 == 54 ;
int calc54 = ( 54 + 10 ) * 2 ;
int var55 = 55 ;
float pi56 = 3.14 ;
string msg57 = "test message 57" ;
bool flag58 = 58 == 59 ;
int calc59 = ( 59 + 10 ) * 2 ;
int var60 = 60 ;
float pi61 = 3.14 ;
string msg62 = "test message 62" ;
bool flag63 = 63 == 64 ;
int calc64 = ( 64 + 10 ) * 2 ;
int var65 = 65 ;
float pi66 = 3.14 ;
string msg67 = "test message 67" ;
bool flag68 = 68 == 69 ;
int calc69 = ( 69 + 10 ) * 2 ;
int var70 = 70 ;
float pi71 = 3.14 ;
string msg72 = "test message 72" ;
bool flag73 = 73 == 74 ;
int calc74 = ( 74 + 10 ) * 2 ;
int var75 = 75 ;
float pi76 = 3.14 ;
string msg77 = "test message 77" ;
bool flag78 = 78 == 79 ;
int calc79 = ( 79 + 10 ) * 2 ;
int var80 = 80 ;
float pi81 = 3.14 ;
string msg82 = "test message 82" ;
bool flag83 = 83 == 84 ;
int calc84 = ( 84 + 10 ) * 2 ;
int var85 = 85 ;
float pi86 = 3.14 ;
string msg87 = "test message 87" ;
bool flag88 = 88 == 89 ;
int calc89 = ( 89 + 10 ) * 2 ;
int var90 = 90 ;
float pi91 = 3.14 ;
string msg92 = "test message 92" ;
bool flag93 = 93 == 94 ;
int calc94 = ( 94 + 10 ) * 2 ;
int var95 = 95 ;
float pi96 = 3.14 ;
string msg97 = "test message 97" ;
bool flag98 = 98 == 99 ;
int calc99 = ( 99 + 10 ) * 2 ;
int var100 = 100 ;
float pi101 = 3.14 ;
string msg102 = "test message 102" ;
bool flag103 = 103 == 104 ;
int calc104 = ( 104 + 10 ) * 2 ;
int var105 = 105 ;
float pi106 = 3.14 ;
string msg107 = "test message 107" ;
bool flag108 = 108 == 109 ;
int calc109 = ( 109 + 10 ) * 2 ;
int var110 = 110 ;
float pi111 = 3.14 ;
string msg112 = "test message 112" ;
bool flag113 = 113 == 114 ;
int calc114 = ( 114 + 10 ) * 2 ;
int var115 = 115 ;
float pi116 = 3.14 ;
string msg117 = "test message 117" ;
bool flag118 = 118 == 119 ;
int calc119 = ( 119 + 10 ) * 2 ;
int var120 = 120 ;
float pi121 = 3.14 ;
string msg122 = "test message 122" ;
bool flag123 = 123 == 124 ;
int calc124 = ( 124 + 10 ) * 2 ;
int var125 = 125 ;
float pi126 = 3.14 ;
string msg127 = "test message 127" ;
bool flag128 = 128 == 129 ;
int calc129 = ( 129 + 10 ) * 2 ;
int var130 = 130 ;
float pi131 = 3.14 ;
string msg132 = "test message 132" ;
bool flag133 = 133 == 134 ;
int calc134 = ( 134 + 10 ) * 2 ;
int var135 = 135 ;
float pi136 = 3.14 ;
string msg137 = "test message 137" ;
bool flag138 = 138 == 139 ;
int calc139 = ( 139 + 10 ) * 2 ;
int var140 = 140 ;
float pi141 = 3.14 ;
string msg142 = "test message 142" ;
bool flag143 = 143 == 144 ;
int calc144 = ( 144 + 10 ) * 2 ;
int var145 = 145 ;
float pi146 = 3.14 ;
string msg147 = "test message 147" ;
bool flag148 = 148 == 149 ;
int calc149 = ( 149 + 10 ) * 2 ;
int var150 = 150 ;
float pi151 = 3.14 ;
string msg152 = "test message 152" ;
bool flag153 = 153 == 154 ;
int calc154 = ( 154 + 10 ) * 2 ;
int var155 = 155 ;
float pi156 = 3.14 ;
string msg157 = "test message 157" ;
bool flag158 = 158 == 159 ;
int calc159 = ( 159 + 10 ) * 2 ;
int var160 = 160 ;
float pi161 = 3.14 ;
string msg162 = "test message 162" ;
bool flag163 = 163 == 164 ;
int calc164 = ( 164 + 10 ) * 2 ;
int var165 = 165 ;
float pi166 = 3.14 ;
string msg167 = "test message 167" ;
bool flag168 = 168 == 169 ;
int calc169 = ( 169 + 10 ) * 2 ;
int var170 = 170 ;
float pi171 = 3.14 ;
string msg172 = "test message 172" ;
bool flag173 = 173 == 174 ;
int calc174 = ( 174 + 10 ) * 2 ;
int var175 = 175 ;
float pi176 = 3.14 ;
string msg177 = "test message 177" ;
bool flag178 = 178 == 179 ;
int calc179 = ( 179 + 10 ) * 2 ;
int var180 = 180 ;
float pi181 = 3.14 ;
string msg182 = "test message 182" ;
bool flag183 = 183 == 184 ;
int calc184 = ( 184 + 10 ) * 2 ;
int var185 = 185 ;
float pi186 = 3.14 ;
string msg187 = "test message 187" ;
bool flag188 = 188 == 189 ;
int calc189 = ( 189 + 10 ) * 2 ;
int var190 = 190 ;
float pi191 = 3.14 ;
string msg192 = "test message 192" ;
bool flag193 = 193 == 194 ;
int calc194 = ( 194 + 10 ) * 2 ;
int var195 = 195 ;
float pi196 = 3.14 ;
string msg197 = "test message 197" ;
bool flag198 = 198 == 199 ;
int calc199 = ( 199 + 10 ) * 2 ;
int var200 = 200 ;
float pi201 = 3.14 ;
string msg202 = "test message 202" ;
bool flag203 = 203 == 204 ;
int calc204 = ( 204 + 10 ) * 2 ;
int var205 = 205 ;
float pi206 = 3.14 ;
string msg207 = "test message 207" ;
bool flag208 = 208 == 209 ;
int calc209 = ( 209 + 10 ) * 2 ;
int var210 = 210 ;
float pi211 = 3.14 ;
string msg212 = "test message 212" ;
bool flag213 = 213 == 214 ;
int calc214 = ( 214 + 10 ) * 2 ;
int var215 = 215 ;
float pi216 = 3.14 ;
string msg217 = "test message 217" ;
bool flag218 = 218 == 219 ;
int calc219 = ( 219 + 10 ) * 2 ;
int var220 = 220 ;
float pi221 = 3.14 ;
string msg222 = "test message 222" ;
bool flag223 = 223 == 224 ;
int calc224 = ( 224 + 10 ) * 2 ;
int var225 = 225 ;
float pi226 = 3.14 ;
string msg227 = "test message 227" ;
bool flag228 = 228 == 229 ;
int calc229 = ( 229 + 10 ) * 2 ;
int var230 = 230 ;
float pi231 = 3.14 ;
string msg232 = "test message 232" ;
bool flag233 = 233 == 234 ;
int calc234 = ( 234 + 10 ) * 2 ;
int var235 = 235 ;
float pi236 = 3.14 ;
string msg237 = "test message 237" ;
bool flag238 = 238 == 239 ;
int calc239 = ( 239 + 10 ) * 2 ;
int var240 = 240 ;
float pi241 = 3.14 ;
string msg242 = "test message 242" ;
bool flag243 = 243 == 244 ;
int calc244 = ( 244 + 10 ) * 2 ;
int var245 = 245 ;
float pi246 = 3.14 ;
string msg247 = "test message 247" ;
bool flag248 = 248 == 249 ;
int calc249 = ( 249 + 10 ) * 2 ;
int var250 = 250 ;
float pi251 = 3.14 ;
string msg252 = "test message 252" ;
bool flag253 = 253 == 254 ;
int calc254 = ( 254 + 10 ) * 2 ;
int var255 = 255 ;
float pi256 = 3.14 ;
string msg257 = "test message 257" ;
bool flag258 = 258 == 259 ;
int calc259 = ( 259 + 10 ) * 2 ;
int var260 = 260 ;
float pi261 = 3.14 ;
string msg262 = "test message 262" ;
bool flag263 = 263 == 264 ;
int calc264 = ( 264 + 10 ) * 2 ;
int var265 = 265 ;
float pi266 = 3.14 ;
string msg267 = "test message 267" ;
bool flag268 = 268 == 269 ;
int calc269 = ( 269 + 10 ) * 2 ;
int var270 = 270 ;
float pi271 = 3.14 ;
string msg272 = "test message 272" ;
bool flag273 = 273 == 274 ;
int calc274 = ( 274 + 10 ) * 2 ;
int var275 = 275 ;
float pi276 = 3.14 ;
string msg277 = "test message 277" ;
bool flag278 = 278 == 279 ;
int calc279 = ( 279 + 10 ) * 2 ;
int var280 = 280 ;
float pi281 = 3.14 ;
string msg282 = "test message 282" ;
bool flag283 = 283 == 284 ;
int calc284 = ( 284 + 10 ) * 2 ;
int var285 = 285 ;
float pi286 = 3.14 ;
string msg287 = "test message 287" ;
bool flag288 = 288 == 289 ;
int calc289 = ( 289 + 10 ) * 2 ;
int var290 = 290 ;
float pi291 = 3.14 ;
string msg292 = "test message 292" ;
bool flag293 = 293 == 294 ;
int calc294 = ( 294 + 10 ) * 2 ;
int var295 = 295 ;
float pi296 = 3.14 ;
string msg297 = "test message 297" ;
bool flag298 = 298 == 299 ;
int calc299 = ( 299 + 10 ) * 2 ;
int var300 = 300 ;
float pi301 = 3.14 ;
string msg302 = "test message 302" ;
bool flag303 = 303 == 304 ;
int calc304 = ( 304 + 10 ) * 2 ;
int var305 = 305 ;
float pi306 = 3.14 ;
string msg307 = "test message 307" ;
bool flag308 = 308 == 309 ;
int calc309 = ( 309 + 10 ) * 2 ;
int var310 = 310 ;
float pi311 = 3.14 ;
string msg312 = "test message 312" ;
bool flag313 = 313 == 314 ;
int calc314 = ( 314 + 10 ) * 2 ;
int var315 = 315 ;
float pi316 = 3.14 ;
string msg317 = "test message 317" ;
bool flag318 = 318 == 319 ;
int calc319 = ( 319 + 10 ) * 2 ;
int var320 = 320 ;
float pi321 = 3.14 ;
string msg322 = "test message 322" ;
bool flag323 = 323 == 324 ;
int calc324 = ( 324 + 10 ) * 2 ;
int var325 = 325 ;
float pi326 = 3.14 ;
string msg327 = "test message 327" ;
bool flag328 = 328 == 329 ;
int calc329 = ( 329 + 10 ) * 2 ;
int var330 = 330 ;
float pi331 = 3.14 ;
string msg332 = "test message 332" ;
bool flag333 = 333 == 334 ;
int calc334 = ( 334 + 10 ) * 2 ;
int var335 = 335 ;
float pi336 = 3.14 ;
string msg337 = "test message 337" ;
bool flag338 = 338 == 339 ;
int calc339 = ( 339 + 10 ) * 2 ;
int var340 = 340 ;
float pi341 = 3.14 ;
string msg342 = "test message 342" ;
bool flag343 = 343 == 344 ;
int calc344 = ( 344 + 10 ) * 2 ;
int var345 = 345 ;
float pi346 = 3.14 ;
string msg347 = "test message 347" ;
bool flag348 = 348 == 349 ;
int calc349 = ( 349 + 10 ) * 2 ;
int var350 = 350 ;
float pi351 = 3.14 ;
string msg352 = "test message 352" ;
bool flag353 = 353 == 354 ;
int calc354 = ( 354 + 10 ) * 2 ;
int var355 = 355 ;
float pi356 = 3.14 ;
string msg357 = "test message 357" ;
bool flag358 = 358 == 359 ;
int calc359 = ( 359 + 10 ) * 2 ;
int var360 = 360 ;
float pi361 = 3.14 ;
string msg362 = "test message 362" ;
bool flag363 = 363 == 364 ;
int calc364 = ( 364 + 10 ) * 2 ;
int var365 = 365 ;
float pi366 = 3.14 ;
string msg367 = "test message 367" ;
bool flag368 = 368 == 369 ;
int calc369 = ( 369 + 10 ) * 2 ;
int var370 = 370 ;
float pi371 = 3.14 ;
string msg372 = "test message 372" ;
bool flag373 = 373 == 374 ;
int calc374 = ( 374 + 10 ) * 2 ;
int var375 = 375 ;
float pi376 = 3.14 ;
string msg377 = "test message 377" ;
bool flag378 = 378 == 379 ;
int calc379 = ( 379 + 10 ) * 2 ;
int var380 = 380 ;
float pi381 = 3.14 ;
string msg382 = "test message 382" ;
bool flag383 = 383 == 384 ;
int calc384 = ( 384 + 10 ) * 2 ;
int var385 = 385 ;
float pi386 = 3.14 ;
string msg387 = "test message 387" ;
bool flag388 = 388 == 389 ;
int calc389 = ( 389 + 10 ) * 2 ;
int var390 = 390 ;
float pi391 = 3.14 ;
string msg392 = "test message 392" ;
bool flag393 = 393 == 394 ;
int calc394 = ( 394 + 10 ) * 2 ;
int var395 = 395 ;
float pi396 = 3.14 ;
string msg397 = "test message 397" ;
bool flag398 = 398 == 399 ;
int calc399 = ( 399 + 10 ) * 2 ;
int var400 = 400 ;
float pi401 = 3.14 ;
string msg402 = "test message 402" ;
bool flag403 = 403 == 404 ;
int calc404 = ( 404 + 10 ) * 2 ;
int var405 = 405 ;
float pi406 = 3.14 ;
string msg407 = "test message 407" ;
bool flag408 = 408 == 409 ;
int calc409 = ( 409 + 10 ) * 2 ;
int var410 = 410 ;
float pi411 = 3.14 ;
string msg412 = "test message 412" ;
bool flag413 = 413 == 414 ;
int calc414 = ( 414 + 10 ) * 2 ;
int var415 = 415 ;
float pi416 = 3.14 ;
string msg417 = "test message 417" ;
bool flag418 = 418 == 419 ;
int calc419 = ( 419 + 10 ) * 2 ;
int var420 = 420 ;
float pi421 = 3.14 ;
string msg422 = "test message 422" ;
bool flag423 = 423 == 424 ;
int calc424 = ( 424 + 10 ) * 2 ;
int var425 = 425 ;
float pi426 = 3.14 ;
string msg427 = "test message 427" ;
bool flag428 = 428 == 429 ;
int calc429 = ( 429 + 10 ) * 2 ;
int var430 = 430 ;
float pi431 = 3.14 ;
string msg432 = "test message 432" ;
bool flag433 = 433 == 434 ;
int calc434 = ( 434 + 10 ) * 2 ;
int var435 = 435 ;
float pi436 = 3.14 ;
string msg437 = "test message 437" ;
bool flag438 = 438 == 439 ;
int calc439 = ( 439 + 10 ) * 2 ;
int var440 = 440 ;
float pi441 = 3.14 ;
string msg442 = "test message 442" ;
bool flag443 = 443 == 444 ;
int calc444 = ( 444 + 10 ) * 2 ;
int var445 = 445 ;
float pi446 = 3.14 ;
string msg447 = "test message 447" ;
bool flag448 = 448 == 449 ;
int calc449 = ( 449 + 10 ) * 2 ;
int var450 = 450 ;
float pi451 = 3.14 ;
string msg452 = "test message 452" ;
bool flag453 = 453 == 454 ;
int calc454 = ( 454 + 10 ) * 2 ;
int var455 = 455 ;
float pi456 = 3.14 ;
string msg457 = "test message 457" ;
bool flag458 = 458 == 459 ;
int calc459 = ( 459 + 10 ) * 2 ;
int var460 = 460 ;
float pi461 = 3.14 ;
string msg462 = "test message 462" ;
bool flag463 = 463 == 464 ;
int calc464 = ( 464 + 10 ) * 2 ;
int var465 = 465 ;
float pi466 = 3.14 ;
string msg467 = "test message 467" ;
bool flag468 = 468 == 469 ;
int calc469 = ( 469 + 10 ) * 2 ;
int var470 = 470 ;
float pi471 = 3.14 ;
string msg472 = "test message 472" ;
bool flag473 = 473 == 474 ;
int calc474 = ( 474 + 10 ) * 2 ;
int var475 = 475 ;
float pi476 = 3.14 ;
string msg477 = "test message 477" ;
bool flag478 = 478 == 479 ;
int calc479 = ( 479 + 10 ) * 2 ;
int var480 = 480 ;
float pi481 = 3.14 ;
string msg482 = "test message 482" ;
bool flag483 = 483 == 484 ;
int calc484 = ( 484 + 10 ) * 2 ;
int var485 = 485 ;
float pi486 = 3.14 ;
string msg487 = "test message 487" ;
bool flag488 = 488 == 489 ;
int calc489 = ( 489 + 10 ) * 2 ;
int var490 = 490 ;
float pi491 = 3.14 ;
string msg492 = "test message 492" ;
bool flag493 = 493 == 494 ;
int calc494 = ( 494 + 10 ) * 2 ;
int var495 = 495 ;
float pi496 = 3.14 ;
string msg497 = "test message 497" ;
bool flag498 = 498 == 499 ;
int calc499 = ( 499 + 10 ) * 2 ;
int var500 = 500 ;
float pi501 = 3.14 ;
string msg502 = "test message 502" ;
bool flag503 = 503 == 504 ;
int calc504 = ( 504 + 10 ) * 2 ;
int var505 = 505 ;
float pi506 = 3.14 ;
string msg507 = "test message 507" ;
bool flag508 = 508 == 509 ;
int calc509 = ( 509 + 10 ) * 2 ;
int var510 = 510 ;
float pi511 = 3.14 ;
string msg512 = "test message 512" ;
bool flag513 = 513 == 514 ;
int calc514 = ( 514 + 10 ) * 2 ;
int var515 = 515 ;
float pi516 = 3.14 ;
string msg517 = "test message 517" ;
bool flag518 = 518 == 519 ;
int calc519 = ( 519 + 10 ) * 2 ;
int var520 = 520 ;
float pi521 = 3.14 ;
string msg522 = "test message 522" ;
bool flag523 = 523 == 524 ;
int calc524 = ( 524 + 10 ) * 2 ;
int var525 = 525 ;
float pi526 = 3.14 ;
string msg527 = "test message 527" ;
bool flag528 = 528 == 529 ;
int calc529 = ( 529 + 10 ) * 2 ;
int var530 = 530 ;
float pi531 = 3.14 ;
string msg532 = "test message 532" ;
bool flag533 = 533 == 534 ;
int calc534 = ( 534 + 10 ) * 2 ;
int var535 = 535 ;
float pi536 = 3.14 ;
string msg537 = "test message 537" ;
bool flag538 = 538 == 539 ;
int calc539 = ( 539 + 10 ) * 2 ;
int var540 = 540 ;
float pi541 = 3.14 ;
string msg542 = "test message 542" ;
bool flag543 = 543 == 544 ;
int calc544 = ( 544 + 10 ) * 2 ;
int var545 = 545 ;
float pi546 = 3.14 ;
string msg547 = "test message 547" ;
bool flag548 = 548 == 549 ;
int calc549 = ( 549 + 10 ) * 2 ;
int var550 = 550 ;
float pi551 = 3.14 ;
string msg552 = "test message 552" ;
bool flag553 = 553 == 554 ;
int calc554 = ( 554 + 10 ) * 2 ;
int var555 = 555 ;
float pi556 = 3.14 ;
string msg557 = "test message 557" ;
bool flag558 = 558 == 559 ;
int calc559 = ( 559 + 10 ) * 2 ;
int var560 = 560 ;
float pi561 = 3.14 ;
string msg562 = "test message 562" ;
bool flag563 = 563 == 564 ;
int calc564 = ( 564 + 10 ) * 2 ;
int var565 = 565 ;
float pi566 = 3.14 ;
string msg567 = "test message 567" ;
bool flag568 = 568 == 569 ;
int calc569 = ( 569 + 10 ) * 2 ;
int var570 = 570 ;
float pi571 = 3.14 ;
string msg572 = "test message 572" ;
bool flag573 = 573 == 574 ;
int calc574 = ( 574 + 10 ) * 2 ;
int var575 = 575 ;
float pi576 = 3.14 ;
string msg577 = "test message 577" ;
bool flag578 = 578 == 579 ;
int calc579 = ( 579 + 10 ) * 2 ;
int var580 = 580 ;
float pi581 = 3.14 ;
string msg582 = "test message 582" ;
bool flag583 = 583 == 584 ;
int calc584 = ( 584 + 10 ) * 2 ;
int var585 = 585 ;
float pi586 = 3.14 ;
string msg587 = "test message 587" ;
bool flag588 = 588 == 589 ;
int calc589 = ( 589 + 10 ) * 2 ;
int var590 = 590 ;
float pi591 = 3.14 ;
string msg592 = "test message 592" ;
bool flag593 = 593 == 594 ;
int calc594 = ( 594 + 10 ) * 2 ;
int var595 = 595 ;
float pi596 = 3.14 ;
string msg597 = "test message 597" ;
bool flag598 = 598 == 599 ;
int calc599 = ( 599 + 10 ) * 2 ;
int var600 = 600 ;
float pi601 = 3.14 ;
string msg602 = "test message 602" ;
bool flag603 = 603 == 604 ;
int calc604 = ( 604 + 10 ) * 2 ;
int var605 = 605 ;
float pi606 = 3.14 ;
string msg607 = "test message 607" ;
bool flag608 = 608 == 609 ;
int calc609 = ( 609 + 10 ) * 2 ;
int var610 = 610 ;
float pi611 = 3.14 ;
string msg612 = "test message 612" ;
bool flag613 = 613 == 614 ;
int calc614 = ( 614 + 10 ) * 2 ;
int var615 = 615 ;
float pi616 = 3.14 ;
string msg617 = "test message 617" ;
bool flag618 = 618 == 619 ;
int calc619 = ( 619 + 10 ) * 2 ;
int var620 = 620 ;
float pi621 = 3.14 ;
string msg622 = "test message 622" ;
bool flag623 = 623 == 624 ;
int calc624 = ( 624 + 10 ) * 2 ;
int var625 = 625 ;
float pi626 = 3.14 ;
string msg627 = "test message 627" ;
bool flag628 = 628 == 629 ;
int calc629 = ( 629 + 10 ) * 2 ;
int var630 = 630 ;
float pi631 = 3.14 ;
string msg632 = "test message 632" ;
bool flag633 = 633 == 634 ;
int calc634 = ( 634 + 10 ) * 2 ;
int var635 = 635 ;
float pi636 = 3.14 ;
string msg637 = "test message 637" ;
bool flag638 = 638 == 639 ;
int calc639 = ( 639 + 10 ) * 2 ;
int var640 = 640 ;
float pi641 = 3.14 ;
string msg642 = "test message 642" ;
bool flag643 = 643 == 644 ;
int calc644 = ( 644 + 10 ) * 2 ;
int var645 = 645 ;
float pi646 = 3.14 ;
string msg647 = "test message 647" ;
bool flag648 = 648 == 649 ;
int calc649 = ( 649 + 10 ) * 2 ;
int var650 = 650 ;
float pi651 = 3.14 ;
string msg652 = "test message 652" ;
bool flag653 = 653 == 654 ;
int calc654 = ( 654 + 10 ) * 2 ;
int var655 = 655 ;
float pi656 = 3.14 ;
string msg657 = "test message 657" ;
bool flag658 = 658 == 659 ;
int calc659 = ( 659 + 10 ) * 2 ;
int var660 = 660 ;
float pi661 = 3.14 ;
string msg662 = "test message 662" ;
bool flag663 = 663 == 664 ;
int calc664 = ( 664 + 10 ) * 2 ;
int var665 = 665 ;
float pi666 = 3.14 ;
string msg667 = "test message 667" ;
bool flag668 = 668 == 669 ;
int calc669 = ( 669 + 10 ) * 2 ;
int var670 = 670 ;
float pi671 = 3.14 ;
string msg672 = "test message 672" ;
bool flag673 = 673 == 674 ;
int calc674 = ( 674 + 10 ) * 2 ;
int var675 = 675 ;
float pi676 = 3.14 ;
string msg677 = "test message 677" ;
bool flag678 = 678 == 679 ;
int calc679 = ( 679 + 10 ) * 2 ;
int var680 = 680 ;
float pi681 = 3.14 ;
string msg682 = "test message 682" ;
bool flag683 = 683 == 684 ;
int calc684 = ( 684 + 10 ) * 2 ;
int var685 = 685 ;
float pi686 = 3.14 ;
string msg687 = "test message 687" ;
bool flag688 = 688 == 689 ;
int calc689 = ( 689 + 10 ) * 2 ;
int var690 = 690 ;
float pi691 = 3.14 ;
string msg692 = "test message 692" ;
bool flag693 = 693 == 694 ;
int calc694 = ( 694 + 10 ) * 2 ;
int var695 = 695 ;
float pi696 = 3.14 ;
string msg697 = "test message 697" ;
bool flag698 = 698 == 699 ;
int calc699 = ( 699 + 10 ) * 2 ;
int var700 = 700 ;
float pi701 = 3.14 ;
string msg702 = "test message 702" ;
bool flag703 = 703 == 704 ;
int calc704 = ( 704 + 10 ) * 2 ;
int var705 = 705 ;
float pi706 = 3.14 ;
string msg707 = "test message 707" ;
bool flag708 = 708 == 709 ;
int calc709 = ( 709 + 10 ) * 2 ;
int var710 = 710 ;
float pi711 = 3.14 ;
string msg712 = "test message 712" ;
bool flag713 = 713 == 714 ;
int calc714 = ( 714 + 10 ) * 2 ;
int var715 = 715 ;
float pi716 = 3.14 ;
string msg717 = "test message 717" ;
bool flag718 = 718 == 719 ;
int calc719 = ( 719 + 10 ) * 2 ;
int var720 = 720 ;
float pi721 = 3.14 ;
string msg722 = "test message 722" ;
bool flag723 = 723 == 724 ;
int calc724 = ( 724 + 10 ) * 2 ;
int var725 = 725 ;
float pi726 = 3.14 ;
string msg727 = "test message 727" ;
bool flag728 = 728 == 729 ;
int calc729 = ( 729 + 10 ) * 2 ;
int var730 = 730 ;
float pi731 = 3.14 ;
string msg732 = "test message 732" ;
bool flag733 = 733 == 734 ;
int calc734 = ( 734 + 10 ) * 2 ;
int var735 = 735 ;
float pi736 = 3.14 ;
string msg737 = "test message 737" ;
bool flag738 = 738 == 739 ;
int calc739 = ( 739 + 10 ) * 2 ;
int var740 = 740 ;
float pi741 = 3.14 ;
string msg742 = "test message 742" ;
bool flag743 = 743 == 744 ;
int calc744 = ( 744 + 10 ) * 2 ;
int var745 = 745 ;
float pi746 = 3.14 ;
string msg747 = "test message 747" ;
bool flag748 = 748 == 749 ;
int calc749 = ( 749 + 10 ) * 2 ;
int var750 = 750 ;
float pi751 = 3.14 ;
string msg752 = "test message 752" ;
bool flag753 = 753 == 754 ;
int calc754 = ( 754 + 10 ) * 2 ;
int var755 = 755 ;
float pi756 = 3.14 ;
string msg757 = "test message 757" ;
bool flag758 = 758 == 759 ;
int calc759 = ( 759 + 10 ) * 2 ;
int var760 = 760 ;
float pi761 = 3.14 ;
string msg762 = "test message 762" ;
bool flag763 = 763 == 764 ;
int calc764 = ( 764 + 10 ) * 2 ;
int var765 = 765 ;
float pi766 = 3.14 ;
string msg767 = "test message 767" ;
bool flag768 = 768 == 769 ;
int calc769 = ( 769 + 10 ) * 2 ;
int var770 = 770 ;
float pi771 = 3.14 ;
string msg772 = "test message 772" ;
bool flag773 = 773 == 774 ;
int calc774 = ( 774 + 10 ) * 2 ;
int var775 = 775 ;
float pi776 = 3.14 ;
string msg777 = "test message 777" ;
bool flag778 = 778 == 779 ;
int calc779 = ( 779 + 10 ) * 2 ;
int var780 = 780 ;
float pi781 = 3.14 ;
string msg782 = "test message 782" ;
bool flag783 = 783 == 784 ;
int calc784 = ( 784 + 10 ) * 2 ;
int var785 = 785 ;
float pi786 = 3.14 ;
string msg787 = "test message 787" ;
bool flag788 = 788 == 789 ;
int calc789 = ( 789 + 10 ) * 2 ;
int var790 = 790 ;
float pi791 = 3.14 ;
string msg792 = "test message 792" ;
bool flag793 = 793 == 794 ;
int calc794 = ( 794 + 10 ) * 2 ;
int var795 = 795 ;
float pi796 = 3.14 ;
string msg797 = "test message 797" ;
bool flag798 = 798 == 799 ;
int calc799 = ( 799 + 10 ) * 2 ;
int var800 = 800 ;
float pi801 = 3.14 ;
string msg802 = "test message 802" ;
bool flag803 = 803 == 804 ;
int calc804 = ( 804 + 10 ) * 2 ;
int var805 = 805 ;
float pi806 = 3.14 ;
string msg807 = "test message 807" ;
bool flag808 = 808 == 809 ;
int calc809 = ( 809 + 10 ) * 2 ;
int var810 = 810 ;
float pi811 = 3.14 ;
string msg812 = "test message 812" ;
bool flag813 = 813 == 814 ;
int calc814 = ( 814 + 10 ) * 2 ;
int var815 = 815 ;
float pi816 = 3.14 ;
string msg817 = "test message 817" ;
bool flag818 = 818 == 819 ;
int calc819 = ( 819 + 10 ) * 2 ;
int var820 = 820 ;
float pi821 = 3.14 ;
string msg822 = "test message 822" ;
bool flag823 = 823 == 824 ;
int calc824 = ( 824 + 10 ) * 2 ;
int var825 = 825 ;
float pi826 = 3.14 ;
string msg827 = "test message 827" ;
bool flag828 = 828 == 829 ;
int calc829 = ( 829 + 10 ) * 2 ;
int var830 = 830 ;
float pi831 = 3.14 ;
string msg832 = "test message 832" ;
bool flag833 = 833 == 834 ;
int calc834 = ( 834 + 10 ) * 2 ;
int var835 = 835 ;
float pi836 = 3.14 ;
string msg837 = "test message 837" ;
bool flag838 = 838 == 839 ;
int calc839 = ( 839 + 10 ) * 2 ;
int var840 = 840 ;
float pi841 = 3.14 ;
string msg842 = "test message 842" ;
bool flag843 = 843 == 844 ;
int calc844 = ( 844 + 10 ) * 2 ;
int var845 = 845 ;
float pi846 = 3.14 ;
string msg847 = "test message 847" ;
bool flag848 = 848 == 849 ;
int calc849 = ( 849 + 10 ) * 2 ;
int var850 = 850 ;
float pi851 = 3.14 ;
string msg852 = "test message 852" ;
bool flag853 = 853 == 854 ;
int calc854 = ( 854 + 10 ) * 2 ;
int var855 = 855 ;
float pi856 = 3.14 ;
string msg857 = "test message 857" ;
bool flag858 = 858 == 859 ;
int calc859 = ( 859 + 10 ) * 2 ;
int var860 = 860 ;
float pi861 = 3.14 ;
string msg862 = "test message 862" ;
bool flag863 = 863 == 864 ;
int calc864 = ( 864 + 10 ) * 2 ;
int var865 = 865 ;
float pi866 = 3.14 ;
string msg867 = "test message 867" ;
bool flag868 = 868 == 869 ;
int calc869 = ( 869 + 10 ) * 2 ;
int var870 = 870 ;
float pi871 = 3.14 ;
string msg872 = "test message 872" ;
bool flag873 = 873 == 874 ;
int calc874 = ( 874 + 10 ) * 2 ;
int var875 = 875 ;
float pi876 = 3.14 ;
string msg877 = "test message 877" ;
bool flag878 = 878 == 879 ;
int calc879 = ( 879 + 10 ) * 2 ;
int var880 = 880 ;
float pi881 = 3.14 ;
string msg882 = "test message 882" ;
bool flag883 = 883 == 884 ;
int calc884 = ( 884 + 10 ) * 2 ;
int var885 = 885 ;
float pi886 = 3.14 ;
string msg887 = "test message 887" ;
bool flag888 = 888 == 889 ;
int calc889 = ( 889 + 10 ) * 2 ;
int var890 = 890 ;
float pi891 = 3.14 ;
string msg892 = "test message 892" ;
bool flag893 = 893 == 894 ;
int calc894 = ( 894 + 10 ) * 2 ;
int var895 = 895 ;
float pi896 = 3.14 ;
string msg897 = "test message 897" ;
bool flag898 = 898 == 899 ;
int calc899 = ( 899 + 10 ) * 2 ;
int var900 = 900 ;
float pi901 = 3.14 ;
string msg902 = "test message 902" ;
bool flag903 = 903 == 904 ;
int calc904 = ( 904 + 10 ) * 2 ;
int var905 = 905 ;
float pi906 = 3.14 ;
string msg907 = "test message 907" ;
bool flag908 = 908 == 909 ;
int calc909 = ( 909 + 10 ) * 2 ;
int var910 = 910 ;
float pi911 = 3.14 ;
string msg912 = "test message 912" ;
bool flag913 = 913 == 914 ;
int calc914 = ( 914 + 10 ) * 2 ;
int var915 = 915 ;
float pi916 = 3.14 ;
string msg917 = "test message 917" ;
bool flag918 = 918 == 919 ;
int calc919 = ( 919 + 10 ) * 2 ;
int var920 = 920 ;
float pi921 = 3.14 ;
string msg922 = "test message 922" ;
bool flag923 = 923 == 924 ;
int calc924 = ( 924 + 10 ) * 2 ;
int var925 = 925 ;
float pi926 = 3.14 ;
string msg927 = "test message 927" ;
bool flag928 = 928 == 929 ;
int calc929 = ( 929 + 10 ) * 2 ;
int var930 = 930 ;
float pi931 = 3.14 ;
string msg932 = "test message 932" ;
bool flag933 = 933 == 934 ;
int calc934 = ( 934 + 10 ) * 2 ;
int var935 = 935 ;
float pi936 = 3.14 ;
string msg937 = "test message 937" ;
bool flag938 = 938 == 939 ;
int calc939 = ( 939 + 10 ) * 2 ;
int var940 = 940 ;
float pi941 = 3.14 ;
string msg942 = "test message 942" ;
bool flag943 = 943 == 944 ;
int calc944 = ( 944 + 10 ) * 2 ;
int var945 = 945 ;
float pi946 = 3.14 ;
string msg947 = "test message 947" ;
bool flag948 = 948 == 949 ;
int calc949 = ( 949 + 10 ) * 2 ;
int var950 = 950 ;
float pi951 = 3.14 ;
string msg952 = "test message 952" ;
bool flag953 = 953 == 954 ;
int calc954 = ( 954 + 10 ) * 2 ;
int var955 = 955 ;
float pi956 = 3.14 ;
string msg957 = "test message 957" ;
bool flag958 = 958 == 959 ;
int calc959 = ( 959 + 10 ) * 2 ;
int var960 = 960 ;
float pi961 = 3.14 ;
string msg962 = "test message 962" ;
bool flag963 = 963 == 964 ;
int calc964 = ( 964 + 10 ) * 2 ;
int var965 = 965 ;
float pi966 = 3.14 ;
string msg967 = "test message 967" ;
bool flag968 = 968 == 969 ;
int calc969 = ( 969 + 10 ) * 2 ;
int var970 = 970 ;
float pi971 = 3.14 ;
string msg972 = "test message 972" ;
bool flag973 = 973 == 974 ;
int calc974 = ( 974 + 10 ) * 2 ;
int var975 = 975 ;
float pi976 = 3.14 ;
string msg977 = "test message 977" ;
bool flag978 = 978 == 979 ;
int calc979 = ( 979 + 10 ) * 2 ;
int var980 = 980 ;
float pi981 = 3.14 ;
string msg982 = "test message 982" ;
bool flag983 = 983 == 984 ;
int calc984 = ( 984 + 10 ) * 2 ;
int var985 = 985 ;
float pi986 = 3.14 ;
string msg987 = "test message 987" ;
bool flag988 = 988 == 989 ;
int calc989 = ( 989 + 10 ) * 2 ;
int var990 = 990 ;
float pi991 = 3.14 ;
string msg992 = "test message 992" ;
bool flag993 = 993 == 994 ;
int calc994 = ( 994 + 10 ) * 2 ;
int var995 = 995 ;
float pi996 = 3.14 ;
string msg997 = "test message 997" ;
bool flag998 = 998 == 999 ;
int calc999 = ( 999 + 10 ) * 2 ;
